<?xml version="1.0"?>
<opencv_storage>
<stage13>
  <maxWeakCount>7</maxWeakCount>
  <stageThreshold>-1.5100984573364258e+00</stageThreshold>
  <weakClassifiers>
    <_>
      <internalNodes>
        0 -1 6682 -5.7831825688481331e-03</internalNodes>
      <leafValues>
        3.3333334326744080e-01 -6.0283690690994263e-01</leafValues></_>
    <_>
      <internalNodes>
        0 -1 87278 1.6225983563344926e-04</internalNodes>
      <leafValues>
        -5.5960249900817871e-01 2.9829043149948120e-01</leafValues></_>
    <_>
      <internalNodes>
        0 -1 81370 3.0758323147892952e-02</internalNodes>
      <leafValues>
        -3.6629295349121094e-01 5.1053184270858765e-01</leafValues></_>
    <_>
      <internalNodes>
        0 -1 88327 -9.8446765914559364e-03</internalNodes>
      <leafValues>
        4.1929572820663452e-01 -3.9803767204284668e-01</leafValues></_>
    <_>
      <internalNodes>
        0 -1 128001 8.9400727301836014e-04</internalNodes>
      <leafValues>
        -3.5022220015525818e-01 5.1219451427459717e-01</leafValues></_>
    <_>
      <internalNodes>
        0 -1 121361 2.0774088334292173e-03</internalNodes>
      <leafValues>
        1.7146748304367065e-01 -8.7638032436370850e-01</leafValues></_>
    <_>
      <internalNodes>
        0 -1 34911 8.4210431668907404e-04</internalNodes>
      <leafValues>
        -3.4074392914772034e-01 5.2395141124725342e-01</leafValues></_></weakClassifiers></stage13>
</opencv_storage>
