<?xml version="1.0"?>
<opencv_storage>
<stage6>
  <maxWeakCount>6</maxWeakCount>
  <stageThreshold>-8.9528059959411621e-01</stageThreshold>
  <weakClassifiers>
    <_>
      <internalNodes>
        0 -1 409 2.3100212216377258e-02</internalNodes>
      <leafValues>
        -7.1538460254669189e-01 4.3181818723678589e-01</leafValues></_>
    <_>
      <internalNodes>
        0 -1 148826 1.9045963883399963e-02</internalNodes>
      <leafValues>
        -5.6947451829910278e-01 3.2902294397354126e-01</leafValues></_>
    <_>
      <internalNodes>
        0 -1 133286 1.3019014149904251e-03</internalNodes>
      <leafValues>
        -4.0553671121597290e-01 5.5371755361557007e-01</leafValues></_>
    <_>
      <internalNodes>
        0 -1 0 8.4639919805340469e-05</internalNodes>
      <leafValues>
        2.6979890465736389e-01 -7.1880191564559937e-01</leafValues></_>
    <_>
      <internalNodes>
        0 -1 68672 -6.7123044282197952e-03</internalNodes>
      <leafValues>
        3.9349651336669922e-01 -5.3608185052871704e-01</leafValues></_>
    <_>
      <internalNodes>
        0 -1 11907 -6.7557673901319504e-04</internalNodes>
      <leafValues>
        -7.6667767763137817e-01 2.8273248672485352e-01</leafValues></_></weakClassifiers></stage6>
</opencv_storage>
