<?xml version="1.0"?>
<opencv_storage>
<stage8>
  <maxWeakCount>7</maxWeakCount>
  <stageThreshold>-9.4846731424331665e-01</stageThreshold>
  <weakClassifiers>
    <_>
      <internalNodes>
        0 -1 254 3.9606228470802307e-02</internalNodes>
      <leafValues>
        -6.3013696670532227e-01 6.4285713434219360e-01</leafValues></_>
    <_>
      <internalNodes>
        0 -1 30432 1.6636293381452560e-02</internalNodes>
      <leafValues>
        -3.9918747544288635e-01 5.3542113304138184e-01</leafValues></_>
    <_>
      <internalNodes>
        0 -1 86166 -3.8786563090980053e-03</internalNodes>
      <leafValues>
        4.0964752435684204e-01 -4.4760134816169739e-01</leafValues></_>
    <_>
      <internalNodes>
        0 -1 156599 -8.6794595699757338e-04</internalNodes>
      <leafValues>
        -6.4668232202529907e-01 2.8535842895507813e-01</leafValues></_>
    <_>
      <internalNodes>
        0 -1 70014 4.7782696783542633e-03</internalNodes>
      <leafValues>
        -4.1435334086418152e-01 4.9610388278961182e-01</leafValues></_>
    <_>
      <internalNodes>
        0 -1 135072 5.3618045058101416e-05</internalNodes>
      <leafValues>
        -5.9933042526245117e-01 3.2134717702865601e-01</leafValues></_>
    <_>
      <internalNodes>
        0 -1 70076 4.9440644215792418e-04</internalNodes>
      <leafValues>
        -4.5594260096549988e-01 3.9953491091728210e-01</leafValues></_></weakClassifiers></stage8>
</opencv_storage>
