<?xml version="1.0"?>
<opencv_storage>
<stage14>
  <maxWeakCount>10</maxWeakCount>
  <stageThreshold>-1.2949963808059692e+00</stageThreshold>
  <weakClassifiers>
    <_>
      <internalNodes>
        0 -1 13491 1.9259968772530556e-02</internalNodes>
      <leafValues>
        -6.1623615026473999e-01 2.4675324559211731e-01</leafValues></_>
    <_>
      <internalNodes>
        0 -1 125338 6.4195338636636734e-03</internalNodes>
      <leafValues>
        -5.2629804611206055e-01 2.2828856110572815e-01</leafValues></_>
    <_>
      <internalNodes>
        0 -1 83657 1.6202608821913600e-04</internalNodes>
      <leafValues>
        -5.3363132476806641e-01 2.5238341093063354e-01</leafValues></_>
    <_>
      <internalNodes>
        0 -1 157711 -2.2984646260738373e-02</internalNodes>
      <leafValues>
        5.3419595956802368e-01 -2.6158684492111206e-01</leafValues></_>
    <_>
      <internalNodes>
        0 -1 118627 5.0789560191333294e-04</internalNodes>
      <leafValues>
        -3.6278569698333740e-01 4.1947877407073975e-01</leafValues></_>
    <_>
      <internalNodes>
        0 -1 127535 -1.1520236730575562e-02</internalNodes>
      <leafValues>
        5.7636564970016479e-01 -2.5908881425857544e-01</leafValues></_>
    <_>
      <internalNodes>
        0 -1 36289 -2.9587964527308941e-03</internalNodes>
      <leafValues>
        4.4833147525787354e-01 -3.1438001990318298e-01</leafValues></_>
    <_>
      <internalNodes>
        0 -1 90421 -3.0244559049606323e-02</internalNodes>
      <leafValues>
        -8.4028518199920654e-01 2.0404489338397980e-01</leafValues></_>
    <_>
      <internalNodes>
        0 -1 19569 -9.1528159100562334e-04</internalNodes>
      <leafValues>
        5.2793121337890625e-01 -3.5644131898880005e-01</leafValues></_>
    <_>
      <internalNodes>
        0 -1 86558 6.2535572797060013e-03</internalNodes>
      <leafValues>
        -6.5277367830276489e-01 2.7322536706924438e-01</leafValues></_></weakClassifiers></stage14>
</opencv_storage>
