<?xml version="1.0"?>
<opencv_storage>
<stage8>
  <maxWeakCount>7</maxWeakCount>
  <stageThreshold>-1.0276448726654053e+00</stageThreshold>
  <weakClassifiers>
    <_>
      <internalNodes>
        0 -1 61131 1.3203804194927216e-01</internalNodes>
      <leafValues>
        -6.0553634166717529e-01 4.5762711763381958e-01</leafValues></_>
    <_>
      <internalNodes>
        0 -1 94298 -6.6068144515156746e-03</internalNodes>
      <leafValues>
        4.1066232323646545e-01 -3.8129356503486633e-01</leafValues></_>
    <_>
      <internalNodes>
        0 -1 70300 7.9400953836739063e-04</internalNodes>
      <leafValues>
        -3.7765923142433167e-01 4.1838645935058594e-01</leafValues></_>
    <_>
      <internalNodes>
        0 -1 140504 -1.4640489593148232e-02</internalNodes>
      <leafValues>
        7.6870489120483398e-01 -1.9607064127922058e-01</leafValues></_>
    <_>
      <internalNodes>
        0 -1 60694 -4.7069005668163300e-02</internalNodes>
      <leafValues>
        7.2013342380523682e-01 -1.7830125987529755e-01</leafValues></_>
    <_>
      <internalNodes>
        0 -1 151544 -1.1694218963384628e-02</internalNodes>
      <leafValues>
        4.7691503167152405e-01 -3.7726837396621704e-01</leafValues></_>
    <_>
      <internalNodes>
        0 -1 150049 9.1817369684576988e-04</internalNodes>
      <leafValues>
        -5.5765467882156372e-01 3.1446483731269836e-01</leafValues></_></weakClassifiers></stage8>
</opencv_storage>
