<?xml version="1.0"?>
<opencv_storage>
<stage5>
  <maxWeakCount>5</maxWeakCount>
  <stageThreshold>-8.6766296625137329e-01</stageThreshold>
  <weakClassifiers>
    <_>
      <internalNodes>
        0 -1 61151 1.5624190866947174e-01</internalNodes>
      <leafValues>
        -6.0666668415069580e-01 7.0833331346511841e-01</leafValues></_>
    <_>
      <internalNodes>
        0 -1 162122 9.9093420431017876e-04</internalNodes>
      <leafValues>
        1.8715427815914154e-01 -7.7902114391326904e-01</leafValues></_>
    <_>
      <internalNodes>
        0 -1 8888 2.0900452509522438e-02</internalNodes>
      <leafValues>
        -3.2320252060890198e-01 6.7880702018737793e-01</leafValues></_>
    <_>
      <internalNodes>
        0 -1 1248 -1.3768924400210381e-02</internalNodes>
      <leafValues>
        5.4744011163711548e-01 -2.8544402122497559e-01</leafValues></_>
    <_>
      <internalNodes>
        0 -1 24844 1.5575502766296268e-03</internalNodes>
      <leafValues>
        2.7796986699104309e-01 -6.7238819599151611e-01</leafValues></_></weakClassifiers></stage5>
</opencv_storage>
