<?xml version="1.0"?>
<opencv_storage>
<stage6>
  <maxWeakCount>7</maxWeakCount>
  <stageThreshold>-9.1071546077728271e-01</stageThreshold>
  <weakClassifiers>
    <_>
      <internalNodes>
        0 -1 51097 7.5185365974903107e-02</internalNodes>
      <leafValues>
        -6.0714286565780640e-01 3.2352942228317261e-01</leafValues></_>
    <_>
      <internalNodes>
        0 -1 114095 4.3072956032119691e-04</internalNodes>
      <leafValues>
        -3.8623818755149841e-01 4.1437217593193054e-01</leafValues></_>
    <_>
      <internalNodes>
        0 -1 158634 -6.6845021210610867e-03</internalNodes>
      <leafValues>
        -8.4835118055343628e-01 1.9662840664386749e-01</leafValues></_>
    <_>
      <internalNodes>
        0 -1 55717 1.6693705692887306e-02</internalNodes>
      <leafValues>
        -4.4617375731468201e-01 3.4106859564781189e-01</leafValues></_>
    <_>
      <internalNodes>
        0 -1 23486 3.0380297452211380e-02</internalNodes>
      <leafValues>
        2.0172964036464691e-01 -9.5914536714553833e-01</leafValues></_>
    <_>
      <internalNodes>
        0 -1 147765 -4.9366615712642670e-03</internalNodes>
      <leafValues>
        2.5533846020698547e-01 -5.1166337728500366e-01</leafValues></_>
    <_>
      <internalNodes>
        0 -1 1 2.4003282305784523e-04</internalNodes>
      <leafValues>
        2.1516697108745575e-01 -7.5977253913879395e-01</leafValues></_></weakClassifiers></stage6>
</opencv_storage>
