<?xml version="1.0"?>
<opencv_storage>
<stage0>
  <maxWeakCount>5</maxWeakCount>
  <stageThreshold>-9.7957020998001099e-01</stageThreshold>
  <weakClassifiers>
    <_>
      <internalNodes>
        0 -1 4042 1.0871203243732452e-01</internalNodes>
      <leafValues>
        -8.6792451143264771e-01 2.6470589637756348e-01</leafValues></_>
    <_>
      <internalNodes>
        0 -1 87476 3.7738718092441559e-03</internalNodes>
      <leafValues>
        -5.7997912168502808e-01 6.3971036672592163e-01</leafValues></_>
    <_>
      <internalNodes>
        0 -1 42591 2.0074916537851095e-03</internalNodes>
      <leafValues>
        -7.7182948589324951e-01 3.5828429460525513e-01</leafValues></_>
    <_>
      <internalNodes>
        0 -1 21563 2.2300265845842659e-04</internalNodes>
      <leafValues>
        -4.6506550908088684e-01 5.5699193477630615e-01</leafValues></_>
    <_>
      <internalNodes>
        0 -1 29492 6.0837507247924805e-02</internalNodes>
      <leafValues>
        -4.4694283604621887e-01 5.9195232391357422e-01</leafValues></_></weakClassifiers></stage0>
</opencv_storage>
